{
  "draws": 68422,
  "losses": 15600,
  "wins": 31061,
  "network": {
    "ns": 9,
    "nh": [
      49
    ],
    "na": 9,
    "net": {
      "W1": {
        "rows": 49,
        "cols": 9,
        "w": {
          "0": 0.9120770573701502,
          "1": 0.06063818279122373,
          "2": -0.8854207555460075,
          "3": 0.5843751630788251,
          "4": 0.9630408108677598,
          "5": -0.5331054427429078,
          "6": 0.09305923969422321,
          "7": 0.367509511888835,
          "8": -1.5563289325372103,
          "9": -1.512951740619281,
          "10": -0.30930614097422476,
          "11": -0.6478539764472537,
          "12": 1.1453783591985147,
          "13": -0.060889116504887784,
          "14": 1.8650440546255385,
          "15": -0.2629695392817951,
          "16": -0.052992041029260445,
          "17": -0.15871490777111555,
          "18": -0.16223279375066912,
          "19": 0.08001413862935498,
          "20": -0.1484898435406971,
          "21": 0.17899395428754433,
          "22": -0.11594681335841692,
          "23": 0.21110582709445247,
          "24": 0.10514032292775286,
          "25": 0.04182514289491484,
          "26": -0.2339197881092235,
          "27": -0.2048301786419525,
          "28": 0.3172513753766775,
          "29": -2.4486752651057087,
          "30": 0.19023209434577765,
          "31": 0.041651996484234566,
          "32": 0.7349086482843499,
          "33": -0.4149810695015461,
          "34": 1.2378629386375966,
          "35": 0.5523425868891508,
          "36": -0.8323821568908125,
          "37": -0.5090962767858068,
          "38": -0.7719133963786227,
          "39": 1.1514852988358646,
          "40": 0.7128560029551647,
          "41": 0.604593171350515,
          "42": -0.2022694736812217,
          "43": -0.06964227799340572,
          "44": -0.028410935680172153,
          "45": 0.0891883976340388,
          "46": 0.01568534237264052,
          "47": 0.0827728242115468,
          "48": -0.10180181701633659,
          "49": 0.058115541643890184,
          "50": -0.16402052532754458,
          "51": -0.06974932683481702,
          "52": -0.05233005190589834,
          "53": 0.13062639360649822,
          "54": 0.35332556599390896,
          "55": -1.0735927217293113,
          "56": -0.3629841814776719,
          "57": 0.6994849643484161,
          "58": 0.5966298047833498,
          "59": -0.7592680795214154,
          "60": 0.9106283531873545,
          "61": -1.0588093272087686,
          "62": 0.6766972568702451,
          "63": 0.026068728871776303,
          "64": 0.017767392149216445,
          "65": 0.03855619192023834,
          "66": -0.05141722996994025,
          "67": 0.006340553015690101,
          "68": -0.08365321182528473,
          "69": -0.009830090750013603,
          "70": -0.14909362865604653,
          "71": 0.19646025612453033,
          "72": 0.4800934634531969,
          "73": -0.40191079043455225,
          "74": -0.15545291228710847,
          "75": -0.4131585878702257,
          "76": 0.7338743499996659,
          "77": -0.877379490247426,
          "78": -0.2451945838240188,
          "79": 0.10710875544906726,
          "80": 0.8159676111413086,
          "81": -0.6209593144688559,
          "82": -0.3157200936840154,
          "83": 1.3727861611087397,
          "84": 0.3016894132467465,
          "85": -0.006747931328575166,
          "86": 0.4371365712339291,
          "87": -1.4589720379814861,
          "88": -1.0137887069349651,
          "89": 1.3368723507074305,
          "90": 0.02595285574499158,
          "91": 0.055927404492632365,
          "92": 0.07263055435272524,
          "93": 0.021647478249279123,
          "94": 0.01831670668135841,
          "95": 0.028811499360058366,
          "96": 0.06819089405333809,
          "97": -0.1248519210703969,
          "98": -0.13886471288081262,
          "99": -0.9271576168743018,
          "100": -0.7403195660568496,
          "101": 1.6350917521400832,
          "102": -0.316825859528678,
          "103": 0.5359739144733996,
          "104": 0.03353906532043902,
          "105": 0.01863060720020612,
          "106": -0.0017339626425046837,
          "107": -0.23703994966532574,
          "108": -0.026512278716447638,
          "109": -0.058936502427783304,
          "110": -0.04703763996312507,
          "111": 0.02172986319182501,
          "112": -0.021102235049632264,
          "113": -0.020419592971636907,
          "114": -0.061810683026930185,
          "115": 0.06836756566022126,
          "116": 0.1307822387537377,
          "117": 0.5888308534969572,
          "118": -0.20821794001613872,
          "119": 0.4716004060316439,
          "120": -1.0320412284286449,
          "121": 0.11371807904429439,
          "122": 0.758486283503232,
          "123": -1.001017932559105,
          "124": 1.2638584430852182,
          "125": -0.9125987628494523,
          "126": -0.03082988474894402,
          "127": 0.7739068554783817,
          "128": -0.4257976880245658,
          "129": -0.5043870931093296,
          "130": 0.7432027342673396,
          "131": 0.1554173314902332,
          "132": -1.1364779983019,
          "133": 1.1776911830824945,
          "134": -0.7887213857756166,
          "135": -0.010914681467297635,
          "136": 0.37271631776713404,
          "137": 0.929604050324393,
          "138": -1.3748788965301606,
          "139": 0.752436861237927,
          "140": 0.19056284342732538,
          "141": -0.7063498750699302,
          "142": 0.896719536994289,
          "143": -1.0479466520792828,
          "144": 0.013003918134847633,
          "145": 0.13781955118092967,
          "146": 0.2782974142177164,
          "147": -0.2612656135848757,
          "148": 0.03245401648527168,
          "149": -0.03498286824017753,
          "150": 0.3035263062265576,
          "151": -0.4152431065291095,
          "152": -0.05213841964605841,
          "153": -0.4294132754148436,
          "154": -1.2897450939311306,
          "155": -0.8016135777707676,
          "156": 0.8964714046018222,
          "157": -0.38756871620766936,
          "158": 0.5629926126854786,
          "159": 1.143966864512126,
          "160": 0.10613679855672402,
          "161": 0.17956711998799993,
          "162": 0.3577770320209087,
          "163": 0.5257774136820359,
          "164": -0.590416142689643,
          "165": -0.9147511222449456,
          "166": -0.5620693679677732,
          "167": -1.160088473484365,
          "168": 1.0407080621526008,
          "169": 0.611309465875844,
          "170": 0.7507468279873908,
          "171": 0.3777191552765874,
          "172": -0.8605121369444307,
          "173": 0.2503518769290861,
          "174": 0.16220136496297086,
          "175": -1.032643483030045,
          "176": -0.28593516615162357,
          "177": -0.3791067139152509,
          "178": 1.1635923312886112,
          "179": 0.5470226828243145,
          "180": 0.11022471299074839,
          "181": 1.8567999161659627,
          "182": -0.9332126355329872,
          "183": 0.3715867890397906,
          "184": -0.16673376625861883,
          "185": -0.38661235873856326,
          "186": 0.7019313052010986,
          "187": -1.6012841428770872,
          "188": 0.015259443769778537,
          "189": 0.670570557199977,
          "190": 0.37295563939821746,
          "191": 0.2549385200968902,
          "192": 0.7560983734347593,
          "193": -0.4859990549590451,
          "194": 1.7650649202571702,
          "195": -0.7465116968093475,
          "196": -1.3951041049994013,
          "197": -1.188178118212505,
          "198": -0.38641966708436903,
          "199": 0.9068742960555037,
          "200": -0.5811607907934853,
          "201": -1.3908766402237769,
          "202": 1.3131049513567972,
          "203": -1.0106042433338933,
          "204": 1.1063937730145594,
          "205": 0.29602867918457004,
          "206": -0.2615052073136906,
          "207": -0.8983376981221306,
          "208": 0.09880472005000902,
          "209": 0.3719932023293359,
          "210": 0.2952758258112893,
          "211": -0.33344440156613964,
          "212": 0.3482137156786273,
          "213": 0.34807271217130975,
          "214": 0.005693942999723926,
          "215": -0.2679088072160656,
          "216": 0.7214214088223838,
          "217": -0.32522399768127946,
          "218": -0.7269542336857083,
          "219": -0.19099915245998894,
          "220": 0.8103349545703822,
          "221": -0.48975202840670023,
          "222": -0.5233707185456083,
          "223": 0.1018137335666003,
          "224": 0.6060599312612932,
          "225": 0.49894624099515683,
          "226": 0.1674925380900469,
          "227": -0.9279816769142786,
          "228": 0.6840441945715744,
          "229": -0.7372749622504882,
          "230": -0.7931070029694265,
          "231": 1.2017251589917846,
          "232": 0.26521278669293125,
          "233": -0.35085514924136857,
          "234": 0.03247957431509704,
          "235": 0.05647044458689737,
          "236": 0.0663932973087985,
          "237": -0.06276330325890796,
          "238": 0.007883452069911737,
          "239": -0.13593907988462753,
          "240": 0.039737526776867725,
          "241": -0.1504484785218211,
          "242": 0.1520696953502013,
          "243": 0.1524695890680432,
          "244": -0.15755231286586574,
          "245": -2.1353340192403674,
          "246": 1.194652474963509,
          "247": 1.7767642373388064,
          "248": 1.5011896139793264,
          "249": -2.096807600376135,
          "250": -0.2503530957120585,
          "251": 0.035247143331839086,
          "252": 1.07610864915978,
          "253": 0.9202174108130265,
          "254": -1.3875538734174628,
          "255": 0.15466135808370085,
          "256": 0.23636628785346742,
          "257": 0.07585548060897201,
          "258": -1.4430075018581727,
          "259": 0.02853720372131828,
          "260": 0.32196522361941887,
          "261": 0.2991628436467293,
          "262": 0.47816558849621654,
          "263": 0.4088707250563327,
          "264": 0.18693091993445157,
          "265": 0.02397818060930186,
          "266": -0.9972939062124022,
          "267": 0.0012702795264278918,
          "268": -0.10201297784523622,
          "269": -0.3112022940222332,
          "270": -0.007632173184517489,
          "271": -0.03959492780146836,
          "272": 0.007415989348806333,
          "273": 0.09378232590851188,
          "274": 0.0002667646119696522,
          "275": 0.09560369030601808,
          "276": -0.02227501860073122,
          "277": -0.01901615894166947,
          "278": -0.07838146912207823,
          "279": -0.05042100779416146,
          "280": -0.005603748196324867,
          "281": -0.014640063862338465,
          "282": -0.0038055345826590583,
          "283": -0.05629992702965528,
          "284": -0.0865048666893582,
          "285": 0.047743777229911216,
          "286": -0.07974897662581722,
          "287": 0.22688427442785028,
          "288": -0.891810587433832,
          "289": -0.052840964435687456,
          "290": 0.2061522725728131,
          "291": -0.9314777492209105,
          "292": 0.21346069006028587,
          "293": -0.599804931261731,
          "294": -0.40192575870155633,
          "295": 0.1934597811436038,
          "296": 2.320267318930694,
          "297": -0.12779182356785082,
          "298": -0.37648518965137234,
          "299": 0.2597888355534771,
          "300": 1.0183306851611214,
          "301": -1.1520579233514203,
          "302": -0.9238314204738836,
          "303": 1.6401679371982842,
          "304": 0.9525523163231622,
          "305": -1.2837489544529233,
          "306": 0.6848972501302857,
          "307": -0.594189484484613,
          "308": 0.12494774997486113,
          "309": 0.252897019374177,
          "310": -0.16335779830924213,
          "311": 0.8162526360092165,
          "312": 0.18376107815677833,
          "313": -1.4153391395393842,
          "314": 0.08629477814871611,
          "315": 0.020251838645514497,
          "316": -0.06773647094334333,
          "317": 0.004872042888691095,
          "318": 0.038790158357383066,
          "319": 0.022484001110520888,
          "320": 0.0600307312620042,
          "321": -0.07527210973877475,
          "322": 0.014327734035053429,
          "323": -0.03186473969137949,
          "324": 0.0016415240095344888,
          "325": 0.3206912107641227,
          "326": -0.31701256663688193,
          "327": 0.7181371082577805,
          "328": 0.3341984659072711,
          "329": -1.4507924822268465,
          "330": 0.08985326369602932,
          "331": 1.2270823927785186,
          "332": -0.9418735785752599,
          "333": 0.05322600526349956,
          "334": 0.05416645644342837,
          "335": 0.06889249557650293,
          "336": -0.07584191678385202,
          "337": 0.028493565934724293,
          "338": -0.14954832351841504,
          "339": 0.018479502694378213,
          "340": -0.05754316776292069,
          "341": 0.1003020912959753,
          "342": -0.5439524820900987,
          "343": -0.9969782534442626,
          "344": -0.4664901848317836,
          "345": -0.1651738372833032,
          "346": 0.8390487961710251,
          "347": 0.6715810879615283,
          "348": 0.17962278608791196,
          "349": 1.0887067548712457,
          "350": -0.5576418819636608,
          "351": -0.3761364127270022,
          "352": -0.437940400837163,
          "353": -0.2293031034955183,
          "354": -0.43888075205111887,
          "355": -0.3901833089887985,
          "356": 0.41342549748799556,
          "357": 0.5083211838194001,
          "358": 0.2525505484758978,
          "359": 0.6884407403903093,
          "360": 1.3984481192263132,
          "361": 0.345162885190496,
          "362": 0.4416959029490547,
          "363": -0.7576316306991485,
          "364": -0.09772825297776673,
          "365": -0.022858012828758233,
          "366": 0.8342977137425776,
          "367": -2.104625246632935,
          "368": -0.053133024673854355,
          "369": -0.06589955066141356,
          "370": 0.8226624747015756,
          "371": -0.9929707880337523,
          "372": -0.3481591525127818,
          "373": 0.458552919353837,
          "374": -0.8416306250060107,
          "375": -0.9119926270403895,
          "376": 1.0249215105066665,
          "377": 0.804878037303594,
          "378": -1.316713916600995,
          "379": 0.49004081574543573,
          "380": 1.2952963728934639,
          "381": -1.0517904259882362,
          "382": 0.3992571848901566,
          "383": -0.5638228257588969,
          "384": -1.4219631867089717,
          "385": -0.40843350514786436,
          "386": 2.516195099064071,
          "387": 0.6901578912060207,
          "388": 0.603565367048331,
          "389": 1.0191759158753657,
          "390": 0.7994314930236067,
          "391": 0.6299095334882705,
          "392": 0.5879468620883456,
          "393": -2.2570008382209985,
          "394": -0.10922877120708681,
          "395": -1.963123281156978,
          "396": 0.7378837817100592,
          "397": -0.865431945819311,
          "398": -0.9298905573682438,
          "399": 1.1361931502024338,
          "400": 0.08522905618966836,
          "401": -0.4623115993006235,
          "402": 0.969858004476307,
          "403": -0.7090850899616848,
          "404": 0.05093038017403135,
          "405": 0.7462409403278746,
          "406": 0.0025292752255920243,
          "407": -0.9878363023158558,
          "408": 0.1721248282388868,
          "409": 0.9489222902595151,
          "410": -0.08076167072586724,
          "411": 0.1661638415564011,
          "412": -0.5272103179860762,
          "413": -0.4759602667454772,
          "414": 0.6635170133199373,
          "415": 0.8548930985601054,
          "416": 0.8342360250123729,
          "417": -0.5725836969765713,
          "418": -0.9895280942990311,
          "419": 0.18097076662629988,
          "420": -0.7079118757494941,
          "421": -0.2690812779543833,
          "422": -0.03561508788799842,
          "423": -0.5636867667114666,
          "424": -0.9417065241038144,
          "425": 0.09489181147349841,
          "426": -0.0782235097218762,
          "427": 0.04256440611378729,
          "428": 0.16135222010692857,
          "429": 0.027169952512765744,
          "430": -0.772343295801002,
          "431": 2.0092440185686544,
          "432": 0.01216538477597763,
          "433": -0.04717781582894147,
          "434": 0.007566699920584635,
          "435": 0.03561329937320554,
          "436": 0.014451936044816385,
          "437": 0.03846398622746073,
          "438": -0.047919212432894376,
          "439": 0.018246261936463466,
          "440": -0.01714592817512537
        }
      },
      "b1": {
        "rows": 49,
        "cols": 1,
        "w": {
          "0": -0.004526463561734693,
          "1": -0.9126703598386369,
          "2": -0.03703258601924325,
          "3": -1.3312916234116703,
          "4": 1.5632876768461366,
          "5": 0.020326273783823658,
          "6": -0.4480536715935847,
          "7": 0.0035897266784458023,
          "8": 1.4548836119345054,
          "9": 0.09123281372311136,
          "10": -0.0058205337369018895,
          "11": 1.2633099942791264,
          "12": 0.001831454467526373,
          "13": 0.32707055702741905,
          "14": -1.9753367279569456,
          "15": 0.3011170043398065,
          "16": 0.06435330424593175,
          "17": 0.3670917956593144,
          "18": 0.6206090618930588,
          "19": -0.4467735965455411,
          "20": 0.08821024799061172,
          "21": -0.34988479174108233,
          "22": -0.34252343509803684,
          "23": -0.36040566843324284,
          "24": 0.19320257693145165,
          "25": 1.5729237809579526,
          "26": -0.0041631296029745885,
          "27": 0.2371833179972225,
          "28": 0.861698182208603,
          "29": -0.07928918509895827,
          "30": 0.0009216535000450731,
          "31": -0.024085151109123296,
          "32": -1.253670336148314,
          "33": 0.39165327329255345,
          "34": 0.6877969813533382,
          "35": 0.017927433627936962,
          "36": 0.8685970560510451,
          "37": 0.00277771349053955,
          "38": -0.13916205522645483,
          "39": 0.7941142904522219,
          "40": -0.2054342674945751,
          "41": 0.4356179419848882,
          "42": 0.6746604227372691,
          "43": 0.5361672824435476,
          "44": -1.4375182154771844,
          "45": -1.5537571929102023,
          "46": -0.11275542553387001,
          "47": -1.5517969505958205,
          "48": 0.010050576264097673
        }
      },
      "W2": {
        "rows": 9,
        "cols": 49,
        "w": {
          "0": 0.2957619493996489,
          "1": -0.11479567571989649,
          "2": 0.1950267120681656,
          "3": -0.1382897648196731,
          "4": 0.1784812110626956,
          "5": -0.0903176181279827,
          "6": -0.007093920016000265,
          "7": -0.061367754851483776,
          "8": 0.19612229844868967,
          "9": 0.4288247208311471,
          "10": -0.001616101828783971,
          "11": -0.05620818146002688,
          "12": 0.05207692533815269,
          "13": 0.1666574870660954,
          "14": 0.022448888451343442,
          "15": 0.3787520598967505,
          "16": -0.28685905559862057,
          "17": -0.39543557307343274,
          "18": 0.12122041600176502,
          "19": -0.20181371093633604,
          "20": 0.12424713864492103,
          "21": -0.41404020559183136,
          "22": -0.20990847637310847,
          "23": 0.2652188258793894,
          "24": 0.009811573497380807,
          "25": -0.132057593950244,
          "26": -0.06628360638145635,
          "27": -0.42390700876293064,
          "28": 0.44926598882464713,
          "29": 0.2946109533082807,
          "30": 0.07294429755297246,
          "31": 0.010861091844241355,
          "32": -0.3442123738681621,
          "33": -0.3962639988729883,
          "34": 0.38301274567010435,
          "35": 0.011406625092699943,
          "36": 0.3497038649309535,
          "37": -0.06964121179818915,
          "38": 0.6819520933666939,
          "39": 0.008472473287829364,
          "40": 0.32456079149411693,
          "41": -0.29210598279589733,
          "42": -0.5667653067305929,
          "43": 0.16889683855357596,
          "44": 1.0035740901260193,
          "45": -0.060960579123918245,
          "46": 0.4848600010499752,
          "47": -0.4023275473714838,
          "48": 0.018044197898618056,
          "49": 0.47982642171341866,
          "50": 0.17067849324915613,
          "51": -0.15110263503736812,
          "52": 0.5168763863943695,
          "53": 0.1311944036205006,
          "54": 0.0967163862717439,
          "55": -0.062365363129807234,
          "56": 0.06776232638371521,
          "57": 0.08354866872055274,
          "58": 0.1253773155314698,
          "59": 0.03055756574769728,
          "60": 0.534436274355429,
          "61": -0.034945286406726894,
          "62": -0.36308550574581583,
          "63": 0.15500088651833951,
          "64": 0.38645757874632486,
          "65": 0.11053186826626961,
          "66": -0.3145084396722148,
          "67": 0.1414345219532216,
          "68": 0.43453806812098034,
          "69": 0.3495131778074229,
          "70": 0.7166691502442875,
          "71": 0.24840519936128802,
          "72": -0.38596271786431857,
          "73": -0.004706450883428178,
          "74": 0.08057728564478789,
          "75": 0.08506493926965708,
          "76": -0.04227758887467015,
          "77": 0.2156912182387589,
          "78": 0.12092553788801758,
          "79": -0.04360867597509742,
          "80": 0.006848696377805162,
          "81": 0.46221037253207586,
          "82": -0.06153844536345443,
          "83": -0.13407806333027522,
          "84": -0.02266121636633629,
          "85": 0.09043777739807027,
          "86": 0.07946888645087685,
          "87": -0.16923737827682317,
          "88": 0.21965797239763718,
          "89": 0.2544796954941513,
          "90": -0.3006049932324678,
          "91": 0.1716853595509588,
          "92": 0.03440690193083639,
          "93": 0.013906781102878194,
          "94": -0.48152581832711244,
          "95": -0.4342668347054147,
          "96": -0.5522238370967206,
          "97": -0.02035747239415464,
          "98": 0.448191432263344,
          "99": 0.0654657987773267,
          "100": -0.08528804859597172,
          "101": 0.917093750279521,
          "102": 0.3602717917509382,
          "103": 0.01844532685098221,
          "104": 0.08079056972247337,
          "105": -0.05331523328538675,
          "106": 0.04109622269974224,
          "107": -0.45415680016300247,
          "108": -0.036619590011524275,
          "109": -0.8052827862926405,
          "110": 0.008454863274612609,
          "111": -0.09938866027414878,
          "112": -0.11173036373218082,
          "113": 0.010111431029753103,
          "114": -0.1721693863694921,
          "115": -0.25274406673809235,
          "116": 0.1604022588521615,
          "117": -0.21731234963092652,
          "118": 0.18066409695258523,
          "119": 0.1826683596892636,
          "120": 0.17009584986758147,
          "121": -0.2585299204053509,
          "122": 0.17323228408939503,
          "123": 0.5790789514198434,
          "124": -0.06847958178542772,
          "125": -0.2767897581427154,
          "126": -0.38348130698368,
          "127": 0.16373541259932584,
          "128": 0.0010475524485377616,
          "129": -0.09321111805111841,
          "130": -0.09274135836871986,
          "131": -0.31730242983114315,
          "132": 0.6033159235062355,
          "133": 0.04511351129724132,
          "134": -0.0728912678186228,
          "135": -0.0238423022047542,
          "136": 0.31180454207014086,
          "137": -0.03176906181379144,
          "138": -0.09559938328947058,
          "139": -0.10446590618198644,
          "140": 0.29379296893458534,
          "141": 0.2766144020646882,
          "142": -0.24616000467302235,
          "143": -0.3368320532278343,
          "144": -0.33133994800781985,
          "145": 0.7401187251682194,
          "146": 0.028288893136261567,
          "147": 0.1342384659191882,
          "148": -0.17929165133689423,
          "149": 0.034872847419922096,
          "150": -0.43204446503146765,
          "151": -0.7956153487150335,
          "152": -0.03510424046758912,
          "153": -0.3820364789920282,
          "154": -0.011670491297591297,
          "155": -0.09121246306846492,
          "156": -0.48352290877946746,
          "157": -0.012881666250329299,
          "158": -0.1701366417096034,
          "159": 0.004765965623874935,
          "160": -0.030303863669451748,
          "161": 0.5740741750984281,
          "162": 0.42696862177289274,
          "163": -0.03389614379127179,
          "164": 0.14870045245547792,
          "165": -0.07910113179071218,
          "166": -0.16855082404987135,
          "167": 0.059693591997680255,
          "168": -0.03602785472528438,
          "169": 0.040075517783572046,
          "170": 0.023301215502678534,
          "171": -0.11345085137890369,
          "172": -0.41038689141419143,
          "173": -0.028688138131809607,
          "174": -0.1717414997740968,
          "175": 0.2752274145752076,
          "176": -0.21408024652119134,
          "177": 0.00667920201993477,
          "178": -0.007874646354882069,
          "179": -0.20394575537400791,
          "180": -0.27246469796173084,
          "181": 0.46110402582427196,
          "182": 0.007069245930839378,
          "183": 0.058350111741946015,
          "184": -0.03580947736761272,
          "185": -0.1219728886682305,
          "186": 0.10853836950221246,
          "187": -0.09799461874394222,
          "188": -0.11490512052185828,
          "189": 0.5056775647085584,
          "190": 0.015504451799802255,
          "191": 1.0838713262175237,
          "192": -0.3298687154424057,
          "193": -0.657463504013759,
          "194": 0.14883085033557478,
          "195": 0.002531286432379631,
          "196": 0.14403554081165668,
          "197": -0.29312742348559484,
          "198": -0.057859490081043526,
          "199": 0.3861643184209196,
          "200": -0.3753253133251557,
          "201": -0.019692117547754424,
          "202": 0.5503260336085328,
          "203": -0.057502516524219054,
          "204": -0.7499557395904412,
          "205": 0.39482654472749773,
          "206": -0.13081150292691,
          "207": -0.19887739845102576,
          "208": 0.13151118393557334,
          "209": -0.06802003013302957,
          "210": 0.558023743399582,
          "211": 0.12153309406317367,
          "212": -0.35693587066076304,
          "213": -0.33363781637286344,
          "214": 0.22597226047143415,
          "215": -0.2625166516620022,
          "216": -0.40221771050485117,
          "217": 0.36671596855529853,
          "218": 0.2068485487076037,
          "219": 0.06405909464436853,
          "220": -0.010592634964683096,
          "221": 0.6276584530801907,
          "222": -0.09053159559406997,
          "223": -0.33613276301259865,
          "224": 0.19333343238181094,
          "225": -0.019261197719928912,
          "226": 0.05260016790011523,
          "227": 0.06457205630493486,
          "228": 0.32848026689201854,
          "229": -0.20569740895775404,
          "230": -0.018245486942419564,
          "231": 0.08021865846521617,
          "232": 0.11556472789068527,
          "233": -0.050375425688490676,
          "234": -0.12095118872886787,
          "235": 0.5252603664701991,
          "236": 0.20902759946054816,
          "237": -0.37009099349658925,
          "238": 0.0011582766370042135,
          "239": 0.4431132670383362,
          "240": -0.2530667922350321,
          "241": -0.20278192095206649,
          "242": -0.9564204619250086,
          "243": -0.006737799025064028,
          "244": 0.07187428707528462,
          "245": 0.6547146079553797,
          "246": -0.1433070292500407,
          "247": -0.016006816996000626,
          "248": 0.00035548439513628094,
          "249": -0.7065076831189812,
          "250": 0.013896230448617973,
          "251": -0.17519479751307085,
          "252": 0.0313485217893583,
          "253": 0.29604629133739296,
          "254": -0.2775901366435787,
          "255": 0.00817459179940232,
          "256": 0.0031647429241101516,
          "257": 0.006133777268176811,
          "258": 0.03358301203757421,
          "259": -0.49966875054316845,
          "260": 0.000032966903633645825,
          "261": 0.010757023195164122,
          "262": 0.1127678457061309,
          "263": -0.28829100371935606,
          "264": -0.05212100876318874,
          "265": 0.23024759977144146,
          "266": -0.3931656399711531,
          "267": -0.24603336330805683,
          "268": 0.21311748067299152,
          "269": -0.31464520713001304,
          "270": -0.17007451155591494,
          "271": 0.012472678781928325,
          "272": -0.32693400460664246,
          "273": 0.288346504290105,
          "274": -0.024663698006814817,
          "275": 0.028252260972984465,
          "276": -0.005775906547522816,
          "277": -0.33088582084081647,
          "278": 0.06384181734893493,
          "279": -0.029180992481504926,
          "280": 0.03185768784456592,
          "281": -0.6255247592169855,
          "282": -0.006901702308576421,
          "283": 0.01769916783988581,
          "284": -0.4353719003581667,
          "285": -0.2278693571561585,
          "286": -0.02739908155611839,
          "287": 0.31792269116354666,
          "288": 0.42259581971190757,
          "289": -0.02640399571338941,
          "290": 0.4516477690287288,
          "291": -0.574571387653499,
          "292": 0.7425287574832401,
          "293": 0.02035277039143117,
          "294": 0.4341937102502654,
          "295": -0.31350570927720683,
          "296": -0.12486364667580245,
          "297": 0.3929280416545498,
          "298": 0.3819629750150406,
          "299": 0.07459694096208999,
          "300": -0.030092194473855253,
          "301": 0.0746660969103255,
          "302": 0.2338691608836342,
          "303": 0.3962343790076713,
          "304": -0.025013038053480534,
          "305": -0.42111548796934306,
          "306": 0.031320823084635484,
          "307": -0.09615970364187534,
          "308": -0.3242316590140213,
          "309": 0.27748475764091124,
          "310": 0.10901582876986521,
          "311": -0.12469614552063142,
          "312": 0.30254620608412947,
          "313": 0.09246657354585479,
          "314": -0.2381960240875734,
          "315": 0.08849363206450127,
          "316": -0.1798773189334495,
          "317": -0.040053557023825036,
          "318": -0.42982394481215036,
          "319": -0.6635688940615879,
          "320": 0.07330254912037754,
          "321": -0.13652240162443804,
          "322": 0.5361554496383163,
          "323": -0.031690537362512504,
          "324": -0.02824212661504696,
          "325": 0.065302446811578,
          "326": 0.1209894879247826,
          "327": -0.23955141075675618,
          "328": -0.015000612268363318,
          "329": -0.0051806697288964785,
          "330": 0.4314053375600198,
          "331": 0.05832039556547071,
          "332": 0.3284346067865013,
          "333": -0.38521221053744004,
          "334": -0.06930052441442593,
          "335": -0.552481382595478,
          "336": 0.23552094678669455,
          "337": 0.0872468310924035,
          "338": 0.472266116526794,
          "339": 0.01794333869709356,
          "340": 0.06657491610992936,
          "341": 0.15411843917749554,
          "342": -0.0019553876847906997,
          "343": 0.16002436483376334,
          "344": -0.39422494730452456,
          "345": 0.10649179667904145,
          "346": 0.16768960293776236,
          "347": 0.19914560051501196,
          "348": -0.051107514703754874,
          "349": 0.28182518706269766,
          "350": 0.02981894613867382,
          "351": 0.07526263472827358,
          "352": -0.1799389510777679,
          "353": -0.028832630438049192,
          "354": -0.05100509160926018,
          "355": 0.01758377809883016,
          "356": -0.27253118702974755,
          "357": 0.910577580209904,
          "358": 0.1849410087305278,
          "359": 0.09657359322253324,
          "360": 0.14358628742826418,
          "361": 0.17948178327628267,
          "362": 0.4680024155904947,
          "363": -0.17773492158339468,
          "364": 0.23661160203203788,
          "365": 0.27598157421084446,
          "366": -0.06339038665413614,
          "367": -0.30048711301248454,
          "368": 0.22141366355749245,
          "369": 0.039951167535173644,
          "370": -0.23669118541734924,
          "371": 0.333602040607579,
          "372": -0.6218758299988271,
          "373": -0.04405213909874526,
          "374": 0.10345674552942004,
          "375": 0.30790985859594394,
          "376": 0.053387222349753474,
          "377": -0.30495690443253587,
          "378": -0.06218582405545294,
          "379": 0.1626400195238746,
          "380": 0.010005331171697836,
          "381": 0.038124338524638396,
          "382": -0.4779619475784838,
          "383": 0.11626685579973917,
          "384": -0.1866034385295232,
          "385": 0.13798594314940524,
          "386": 0.31633460603930297,
          "387": -0.13130478920317792,
          "388": -0.5642998328218202,
          "389": -0.38327002839069624,
          "390": 0.16767243437038523,
          "391": -0.040424700239599765,
          "392": 0.7030290199927811,
          "393": -0.4725574224760723,
          "394": 0.12482777959383014,
          "395": -0.1643033473777321,
          "396": 0.17213634867486297,
          "397": -0.061843706454120885,
          "398": -0.30272485928171056,
          "399": -0.029408585384486118,
          "400": -0.7950836055120865,
          "401": 0.05479631224474377,
          "402": -0.006996245220800968,
          "403": -0.3216014737502784,
          "404": -0.000393930397477138,
          "405": -0.09957251872088854,
          "406": -0.47406491584748645,
          "407": 0.41995705588175264,
          "408": -0.08464792870419044,
          "409": 0.3983824745167194,
          "410": 0.1711208955686937,
          "411": 0.31109911595764744,
          "412": 0.045294669106803916,
          "413": -0.015104832323000509,
          "414": 0.20008660954904334,
          "415": 0.5645708920556956,
          "416": -0.002147749637872991,
          "417": -0.5342321478350324,
          "418": -0.03229886270339347,
          "419": -0.5760192362359859,
          "420": 0.2656381635925017,
          "421": -0.11376001151760656,
          "422": 0.0004337158033749052,
          "423": 0.0013464270205755663,
          "424": -0.5028643036138358,
          "425": -0.37138579123907706,
          "426": 0.02322511338724743,
          "427": -0.018740508374610342,
          "428": 0.1587070205689034,
          "429": -0.035151485102977054,
          "430": 0.4677455852535222,
          "431": -0.7623737423794249,
          "432": 0.10132158756546518,
          "433": -0.5128145880633809,
          "434": 0.22932501147714954,
          "435": 0.2352921779763806,
          "436": -0.0029621656676680585,
          "437": 0.5126697540800262,
          "438": -0.26900786178871705,
          "439": -0.27773863694003903,
          "440": -0.013964280393478029
        }
      },
      "b2": {
        "rows": 9,
        "cols": 1,
        "w": {
          "0": 0.2507580012849296,
          "1": 0.13663146986253935,
          "2": 1.2083800383320478,
          "3": 1.63988458017897,
          "4": 1.526979075813656,
          "5": 1.4936671559683339,
          "6": 1.1765842727643825,
          "7": 1.2005570815682753,
          "8": 1.1761442276109009
        }
      }
    }
  }
}
