{
  "draws": 68418,
  "losses": 31057,
  "wins": 15598,
  "network": {
    "ns": 9,
    "nh": [
      49
    ],
    "na": 9,
    "net": {
      "W1": {
        "rows": 49,
        "cols": 9,
        "w": {
          "0": -0.3528884879264132,
          "1": -0.9348568949614803,
          "2": -1.2154285758376435,
          "3": 0.3952246001435282,
          "4": 1.3101293789060948,
          "5": -0.3774241290738969,
          "6": 1.3654029163630828,
          "7": 0.9917852264115686,
          "8": 0.24964338219758464,
          "9": 1.9220499195868321,
          "10": 0.5011395142995054,
          "11": -0.42460676906044115,
          "12": 0.4638805483279576,
          "13": -0.4733525630554821,
          "14": -0.13519586578712944,
          "15": -1.184426308633855,
          "16": 0.33841680503863725,
          "17": -2.053974912047198,
          "18": -0.8460078725050846,
          "19": -0.7610455111482312,
          "20": 1.5891274548858307,
          "21": -0.5549630214098591,
          "22": 0.8524682034532254,
          "23": -1.125447582449576,
          "24": 0.23666818684090918,
          "25": 0.6535680536903622,
          "26": 1.0333349036430632,
          "27": 1.4683055885892633,
          "28": -0.8040409798588758,
          "29": -0.06234630901255223,
          "30": 0.5201104576656447,
          "31": 0.2833649251450066,
          "32": 1.3560961105701084,
          "33": -0.038482446377108195,
          "34": -1.1715996493188947,
          "35": -1.1605741231513411,
          "36": -0.8739227549761153,
          "37": 0.8578728480145309,
          "38": -1.5041235399308446,
          "39": 0.8333983066826786,
          "40": -0.3724498655314759,
          "41": 1.360308193578761,
          "42": -0.3330898424273132,
          "43": 0.42963509070022177,
          "44": 0.23958002394450426,
          "45": -1.6104077429542787,
          "46": -0.5497612615870084,
          "47": 1.175247060708325,
          "48": -0.8225723718864083,
          "49": 1.0006079746103411,
          "50": 1.7801697830278829,
          "51": -0.7173737646961397,
          "52": 0.5283220271483965,
          "53": 1.6771658933823497,
          "54": 1.7022672716016307,
          "55": -0.18518460383134364,
          "56": 0.21360147687775324,
          "57": 1.808610793086719,
          "58": -0.6430544915792914,
          "59": -1.0284100115100954,
          "60": 0.9994555355847423,
          "61": 0.4460319449628436,
          "62": -0.3238859114583698,
          "63": 0.3943869236418391,
          "64": 1.0386244792483972,
          "65": -1.5191145412940583,
          "66": 0.4788297535238502,
          "67": 0.858726758325041,
          "68": -1.1882412905235236,
          "69": 0.04644261367797002,
          "70": 0.3745325937946394,
          "71": -0.5318008029761055,
          "72": -0.40076793500534347,
          "73": 0.12234746176907799,
          "74": 1.6341824411831694,
          "75": -1.1940082956929081,
          "76": 0.8603338972942798,
          "77": -0.15498175824328828,
          "78": -0.8378534276359574,
          "79": 0.6966456861486449,
          "80": -0.06672798078610431,
          "81": -0.7267497931580207,
          "82": 1.6514300936457598,
          "83": 0.22438276835117102,
          "84": 0.2730226032605896,
          "85": 0.6917669085445196,
          "86": 0.4238226343809921,
          "87": -0.0733717686800555,
          "88": -1.2487679223956158,
          "89": -0.7097395871695757,
          "90": -0.7074225121687225,
          "91": 1.4028424206574364,
          "92": 0.5014309285792226,
          "93": -0.5863395186546524,
          "94": -1.021408156911012,
          "95": 0.8697536681492557,
          "96": -0.7549312845395484,
          "97": 0.10040042211280414,
          "98": 0.018095544962488407,
          "99": -2.073409121051025,
          "100": 1.643755989494995,
          "101": 0.02497990717376733,
          "102": 0.1213103256858075,
          "103": 0.44706175711961205,
          "104": 1.0071985501052994,
          "105": -0.4324807706664211,
          "106": -0.27929390292353284,
          "107": 0.8777893290334308,
          "108": 0.0725412761458588,
          "109": -0.047614267175962545,
          "110": -0.036471557023602434,
          "111": 0.12965035866262478,
          "112": -0.012435396037364483,
          "113": 0.2456632380784279,
          "114": 0.23234648462553698,
          "115": -0.20845048492015308,
          "116": -0.38313686989575163,
          "117": -0.18228687096923557,
          "118": -0.177016900213344,
          "119": -0.4037752747121044,
          "120": -1.2336409334424159,
          "121": -0.46375016929207263,
          "122": -0.5260396861529766,
          "123": 1.6045271559645922,
          "124": 0.8918626778918054,
          "125": 0.5473999384014366,
          "126": -0.035721804449895915,
          "127": 0.011020047405878905,
          "128": -0.04243559821860551,
          "129": -0.045718431998938096,
          "130": -0.04842618637360487,
          "131": 0.09688104414247764,
          "132": -0.09743415447871852,
          "133": 0.05452839666594101,
          "134": 0.1022279874207067,
          "135": 0.0002649334247244912,
          "136": -0.005014207240217738,
          "137": -0.01066502536328991,
          "138": -0.00968896506417988,
          "139": -0.000985153460746569,
          "140": -0.0996267030729617,
          "141": 0.002675918495116389,
          "142": -0.038733188486540296,
          "143": 0.14088352116204578,
          "144": -0.05187554377179743,
          "145": 0.9288716483200906,
          "146": 0.4750946660812081,
          "147": -1.7084430204251095,
          "148": -0.28858002710180475,
          "149": -0.6954248607143609,
          "150": -0.28427382493847453,
          "151": 0.16590496172861224,
          "152": -0.19651469025462873,
          "153": 1.0450078100814348,
          "154": -0.07590326163803802,
          "155": 0.06468201867416778,
          "156": 0.26945014438456877,
          "157": 1.1323078155007706,
          "158": -0.4856419564320215,
          "159": 0.1300957227575187,
          "160": 0.430489399884737,
          "161": -2.8223253378621376,
          "162": 0.8405931448721067,
          "163": 0.24324165539861545,
          "164": 0.000615648032178384,
          "165": -0.960315387196132,
          "166": 0.06607024253340578,
          "167": 0.23738838154971426,
          "168": -1.2778063122935142,
          "169": 0.8247468805973623,
          "170": 0.194994761349776,
          "171": -1.1122148014772832,
          "172": -0.36552898732132805,
          "173": 0.786157763271891,
          "174": 0.07258958440101636,
          "175": 0.4440059867801159,
          "176": -0.7311532933513227,
          "177": 0.6272682446642289,
          "178": -1.854734712071816,
          "179": 0.7527643025451921,
          "180": 0.2200883037869797,
          "181": 1.3494508705815726,
          "182": 0.19675276126946295,
          "183": -1.72192696551593,
          "184": 0.3383541169598302,
          "185": 0.32292315574291197,
          "186": -1.0419335890597452,
          "187": 0.4287126849965575,
          "188": -0.1959008476752014,
          "189": -1.619613205209196,
          "190": 1.2051217682138438,
          "191": -1.6538078779632222,
          "192": -0.363492673770315,
          "193": 1.0469137899926753,
          "194": -0.7030510662889037,
          "195": -0.5545368387333058,
          "196": 0.8117269993657226,
          "197": 2.1463500451523774,
          "198": 0.23709614419599023,
          "199": 0.6621631898503624,
          "200": -0.36383827347329634,
          "201": -0.6004275762984917,
          "202": 0.2655317299758436,
          "203": -0.5325648838927751,
          "204": 0.33064235299289063,
          "205": -0.3515460380070878,
          "206": -0.03437039908893796,
          "207": 0.06715313246369686,
          "208": -0.26014432750494604,
          "209": 0.2711068639210836,
          "210": 0.17793219927153076,
          "211": -0.0981052761934226,
          "212": 0.09844614611825042,
          "213": -0.330351788528025,
          "214": 0.2910666934907337,
          "215": -0.6880554754933668,
          "216": 0.8752195667649356,
          "217": -1.4364943075265433,
          "218": -0.6660502794174027,
          "219": 0.39580423445515356,
          "220": 0.28321258947083944,
          "221": -0.2736525080155024,
          "222": 1.936314371993187,
          "223": -0.7278167690869883,
          "224": -0.816044749197743,
          "225": 0.36653175266615123,
          "226": 0.444303627228236,
          "227": -0.2825413319938423,
          "228": -1.276148683415553,
          "229": -2.087584051043869,
          "230": 0.11049280082524311,
          "231": 1.806388210854883,
          "232": -0.24454785025506384,
          "233": 0.08675639812551025,
          "234": 0.04066514061156904,
          "235": -0.03825038685990201,
          "236": -0.025009441862064233,
          "237": -0.031008822478800928,
          "238": 0.034395957799313905,
          "239": -0.0039674314234064,
          "240": 0.037423578595357575,
          "241": 0.1497474933683024,
          "242": -0.16547645641243228,
          "243": -1.8980955521988494,
          "244": 1.9970862700959526,
          "245": 1.9365180294362527,
          "246": -0.25756934946859245,
          "247": -0.6942282806662381,
          "248": 0.4100024767562018,
          "249": -0.7785978730094241,
          "250": -0.02912716078845352,
          "251": -0.8606947869121732,
          "252": 0.1920335930283253,
          "253": 0.04548518054035559,
          "254": 1.0309332429771565,
          "255": -1.303085872392078,
          "256": -0.4836188027235863,
          "257": -1.5201861155942333,
          "258": 1.235293784623852,
          "259": 0.474348736633264,
          "260": -0.018618136256698087,
          "261": 0.0035611799572855007,
          "262": -0.010990048005814101,
          "263": 0.004694053610343955,
          "264": 0.02924253673283081,
          "265": 0.019689310516030484,
          "266": 0.011153465276662654,
          "267": 0.02943266662032384,
          "268": -0.02322984057168564,
          "269": -0.05374662485783498,
          "270": -0.19527372609525065,
          "271": 0.77257960317042,
          "272": -0.4151464432660586,
          "273": 0.05935699124145023,
          "274": -0.3298168900377793,
          "275": 0.21385731380984782,
          "276": 0.14153516031324964,
          "277": -0.6529762719111385,
          "278": 0.3339217520574596,
          "279": 0.27312029187477777,
          "280": -0.13692289768954377,
          "281": 0.14521424330289645,
          "282": -0.5226602179097873,
          "283": -0.5625639295963629,
          "284": 1.3590386646806334,
          "285": 0.2670567144290695,
          "286": -0.30291429076836757,
          "287": 0.9090493796182378,
          "288": -0.010780567333432415,
          "289": 0.012377766313872055,
          "290": 0.013871057487673519,
          "291": 0.021603918227337104,
          "292": -0.008732663130042733,
          "293": 0.11089304675861636,
          "294": -0.015130295373810663,
          "295": -0.000008899920257143608,
          "296": -0.08972319025382784,
          "297": 0.8452812962558975,
          "298": -0.7378351904326933,
          "299": 0.6144255161666632,
          "300": 0.902835129776705,
          "301": -0.6800598394479156,
          "302": 0.22675432093358752,
          "303": 1.0146261042794702,
          "304": -0.7855740476828715,
          "305": 0.23827264012691207,
          "306": 0.7269370399667001,
          "307": 0.41906014720438883,
          "308": -0.7968964426239489,
          "309": 0.8417384759664563,
          "310": -0.048395541870197255,
          "311": -1.5532788676382374,
          "312": 0.2028658163781062,
          "313": 0.10898703734426017,
          "314": -0.660268560802533,
          "315": -0.5084892128438299,
          "316": -1.209962725437389,
          "317": -0.736364808847925,
          "318": 0.35854604583811805,
          "319": -1.0661482171598644,
          "320": 0.6102048783748969,
          "321": 0.32953950783006297,
          "322": 0.24420117583784215,
          "323": 0.4687797638896889,
          "324": -0.21438584170465902,
          "325": 0.19574374093060465,
          "326": 0.40837815336196137,
          "327": 1.3819488682293448,
          "328": -1.5065851823879213,
          "329": -0.4919014418056528,
          "330": -0.7164918882086074,
          "331": -0.7933104703771686,
          "332": 1.7372615611274378,
          "333": -0.391334214117875,
          "334": 0.058430486741988676,
          "335": 0.4307716388392742,
          "336": 0.3630179393775156,
          "337": -0.05175252680867751,
          "338": 0.01876469075923117,
          "339": 0.03420233737569156,
          "340": -0.8793695082667093,
          "341": 0.571992395928098,
          "342": -1.6323439312734482,
          "343": -0.07207360835850564,
          "344": 0.05200165926756492,
          "345": -0.4033651304830834,
          "346": 1.5306050470970123,
          "347": -0.07218537189489255,
          "348": -0.0026364078137635777,
          "349": -0.04010327006170566,
          "350": 2.104111369535399,
          "351": 0.03415675041931524,
          "352": -0.026914648612225655,
          "353": -0.006852724105572373,
          "354": -0.02974990335501778,
          "355": 0.035901971625294904,
          "356": -0.09092706336011411,
          "357": 0.021926926879957426,
          "358": 0.06205590985853815,
          "359": -0.007370655127283562,
          "360": 0.03225645368734687,
          "361": -0.04075330962498611,
          "362": -0.018918315511815928,
          "363": -0.011950233673440759,
          "364": 0.05140970687828707,
          "365": -0.10163066182321452,
          "366": 0.038370607224545834,
          "367": 0.039466770306755564,
          "368": 0.018796674505259268,
          "369": 0.38831476392832137,
          "370": -1.5496724440156697,
          "371": 0.5222108832954165,
          "372": 0.18591391500976126,
          "373": -1.2163284733552215,
          "374": 0.4777692279230257,
          "375": 0.7531296147944897,
          "376": -1.1277125478017427,
          "377": 1.0069325171830452,
          "378": 0.5656080061177126,
          "379": -0.3777860287670847,
          "380": -0.006877697592666661,
          "381": -0.08555008093575484,
          "382": 0.3538687892347346,
          "383": 0.07588283900720523,
          "384": -0.4355089451512431,
          "385": 0.18880414550206326,
          "386": -0.05328421255934881,
          "387": 0.1120889066549546,
          "388": 0.03238250529696973,
          "389": 0.09940088275148388,
          "390": 0.14288260874660927,
          "391": 0.07137377435187318,
          "392": -0.04586602666651322,
          "393": 0.3402124596760156,
          "394": -0.16691962360077198,
          "395": -0.6135152485432139,
          "396": 0.06758371512897003,
          "397": -0.0701932649615894,
          "398": -0.07018249500020764,
          "399": -0.12883612484682255,
          "400": 0.09693219599493914,
          "401": -0.18665265170571466,
          "402": -0.009708934313247814,
          "403": 0.17981933588024215,
          "404": 0.12216610151317253,
          "405": 0.5375190436749917,
          "406": 1.1851206001784287,
          "407": 0.9163509161213838,
          "408": -0.8174074950275451,
          "409": -0.37321776773508375,
          "410": -0.5249436385007473,
          "411": 0.022071615206806377,
          "412": 0.3024774059134064,
          "413": -0.197220062372644,
          "414": -0.6964371510685063,
          "415": -1.0290927666186407,
          "416": -0.29282017359359314,
          "417": -1.349146258036689,
          "418": 1.3536197404389074,
          "419": 1.371650244034338,
          "420": 0.3243739973408271,
          "421": -0.03205195286826141,
          "422": 0.3369233204534097,
          "423": 0.9328936725840028,
          "424": -1.0920717258443582,
          "425": -1.0321509660770873,
          "426": 1.4402358649038143,
          "427": -1.0293669069338507,
          "428": -0.1434161880043101,
          "429": 1.002872314277875,
          "430": -0.06339318359705569,
          "431": -0.38158526641805685,
          "432": -0.41743469209809486,
          "433": -0.8102452689554775,
          "434": 0.9650931472375757,
          "435": -0.342867980423646,
          "436": -2.357539162742871,
          "437": -0.346732825973945,
          "438": 0.6207741064964536,
          "439": 0.03046412384445704,
          "440": 0.061150302215353586
        }
      },
      "b1": {
        "rows": 49,
        "cols": 1,
        "w": {
          "0": -1.433974554874812,
          "1": 1.0700973648679994,
          "2": -1.064280577813065,
          "3": -0.38782176220765047,
          "4": -0.6447696117041476,
          "5": -2.4868732365468422,
          "6": -3.0074094272353173,
          "7": 0.03649650555158377,
          "8": -0.6718446734943111,
          "9": -0.4808096462304349,
          "10": 0.17800232097067842,
          "11": -1.3523820254812542,
          "12": -0.01399761915967743,
          "13": -0.05115988533525067,
          "14": -0.020033322810948287,
          "15": -0.006085809499328384,
          "16": 1.629837747997659,
          "17": 0.29256463598768784,
          "18": -0.12501802926707634,
          "19": 1.3370068887952558,
          "20": 0.04811102443718955,
          "21": -0.33660138317425364,
          "22": 0.34812129049482843,
          "23": 0.43836750545178294,
          "24": 0.42067303962259706,
          "25": 1.0744116612852344,
          "26": 0.009434605592750538,
          "27": 0.23286170310910387,
          "28": 0.33749372078988094,
          "29": 0.000913040230911495,
          "30": 0.07853089607824118,
          "31": -1.432964873149943,
          "32": 0.003609174729308697,
          "33": -1.5857104948991454,
          "34": 0.7867047962725391,
          "35": 1.549240862269979,
          "36": -0.008267436066682612,
          "37": -0.13866942434092827,
          "38": -1.4624715959351116,
          "39": -0.00015346894737276577,
          "40": -0.004682798162697736,
          "41": 0.6063715529431071,
          "42": -0.25524295554258525,
          "43": 0.05211227081712306,
          "44": -0.043291161456975064,
          "45": -1.0631708347554853,
          "46": -0.04752147988028167,
          "47": 0.3137236512597482,
          "48": 2.5711605199288687
        }
      },
      "W2": {
        "rows": 9,
        "cols": 49,
        "w": {
          "0": 0.7590485950708131,
          "1": 0.4981965075622027,
          "2": -0.5421819825568809,
          "3": 0.4210629987418444,
          "4": -0.1622299372775683,
          "5": 0.12145279341803956,
          "6": 0.5083813537101507,
          "7": 0.19320578977368885,
          "8": 0.7273725366645422,
          "9": 0.4958901544968801,
          "10": 0.5581924007782632,
          "11": -0.12030137787008564,
          "12": 0.06015039766516461,
          "13": -0.16133030806373472,
          "14": -0.025932344522603925,
          "15": 0.005228490812037819,
          "16": -0.0056277232853696995,
          "17": 0.30369527300038884,
          "18": 0.23943735489766116,
          "19": -0.0382846963943653,
          "20": 0.34007732758079484,
          "21": -0.42728248239790356,
          "22": 0.10773681494619984,
          "23": -0.0015868740962642878,
          "24": -0.12221037444609782,
          "25": -0.014868726720641436,
          "26": 0.006353706194917185,
          "27": -0.2711955196208173,
          "28": 0.47068002362808725,
          "29": -0.0003326208176702966,
          "30": -0.03528079470998417,
          "31": -0.26749344852189855,
          "32": -0.012685910422981148,
          "33": -0.15050731494414066,
          "34": 0.013483151848491961,
          "35": -0.38886825402307607,
          "36": 0.04930000553187993,
          "37": 0.016764287495721505,
          "38": 0.06466846241385157,
          "39": -0.0005997541489350592,
          "40": -0.0045329591974628495,
          "41": 0.2116336264976244,
          "42": -0.18344650277379207,
          "43": 0.06466594617702077,
          "44": -0.026253515703913783,
          "45": -0.14283878079992013,
          "46": 0.14358243985284266,
          "47": 0.7898189264446227,
          "48": 0.4225376569375886,
          "49": 0.6183048081544525,
          "50": 0.34704274758482423,
          "51": 0.058576438058124784,
          "52": 0.6533231561033107,
          "53": 0.640438185891511,
          "54": -0.5496205781932844,
          "55": 0.3245866493720403,
          "56": -0.24333787766160442,
          "57": 0.2670983355182879,
          "58": -0.3513822702514202,
          "59": 0.15622392725228654,
          "60": 0.37907404663754196,
          "61": -0.014362644993135394,
          "62": -0.2136435542284552,
          "63": -0.005509382646237785,
          "64": 0.0004890316086915057,
          "65": -0.13758057035996527,
          "66": 0.21207194380141223,
          "67": 0.34050989219230177,
          "68": 0.5729982770515808,
          "69": 0.08653778122081446,
          "70": -0.2297784300341918,
          "71": -0.14800621724539573,
          "72": -0.02068895582944176,
          "73": 0.08640381297132015,
          "74": 0.13140796106957223,
          "75": -0.01932637982073545,
          "76": 0.31156765775434503,
          "77": 0.43487135508723607,
          "78": 0.00117251689662424,
          "79": -0.17771870504107942,
          "80": 0.2488995162153634,
          "81": 0.0028079285574630223,
          "82": 0.09376109865589488,
          "83": 0.47189847820085506,
          "84": -0.15936004444846816,
          "85": -0.03733824119617154,
          "86": 0.09925360219829663,
          "87": 0.6470997275321967,
          "88": 0.0034102806763367634,
          "89": 0.0009719386380493144,
          "90": 0.25717642843502614,
          "91": 0.13060968619495195,
          "92": 0.015867508364382138,
          "93": 0.015275540537239425,
          "94": -0.22641555984064352,
          "95": 0.12446655096600227,
          "96": -0.35471781542621383,
          "97": -0.009899360071377202,
          "98": -0.03895162842977174,
          "99": 0.4228120664784915,
          "100": 0.34269844774935326,
          "101": 0.4631097469590997,
          "102": 0.1224824028091559,
          "103": 0.3320027125429024,
          "104": -0.12146810095882192,
          "105": 0.5139375772533814,
          "106": 0.23023657210768175,
          "107": 0.3511125306154804,
          "108": 0.4420575891514393,
          "109": -0.7372618149796654,
          "110": -0.05427645393600845,
          "111": -0.46781333133218816,
          "112": 0.04059204152922583,
          "113": 0.004194559483547107,
          "114": -0.2586624784726419,
          "115": 0.02192115925907138,
          "116": -0.104876641826363,
          "117": -0.5676243796087972,
          "118": -0.6262663628313483,
          "119": -0.09466631217221971,
          "120": -0.10545805459283944,
          "121": -0.21443619154920998,
          "122": 0.19877573417100977,
          "123": 0.42766159798052994,
          "124": -0.03000845074520179,
          "125": 0.16815667055211855,
          "126": 0.525681139238495,
          "127": -0.00923286406020335,
          "128": -0.041980042814573744,
          "129": -0.018425407128122184,
          "130": 0.004170577118643776,
          "131": -0.8328750268568255,
          "132": 0.08115668430609171,
          "133": -0.6442943374139947,
          "134": 0.27204732370154344,
          "135": 0.03313233833364285,
          "136": 0.4874903731086047,
          "137": -0.011119633476844318,
          "138": -0.012767963248826385,
          "139": 0.3493051978673621,
          "140": -0.22229472591478197,
          "141": -0.06049684524317681,
          "142": 0.025575117102972274,
          "143": -0.3014010727894371,
          "144": 0.36043457580418853,
          "145": -0.4290470824018374,
          "146": 0.7280281020609941,
          "147": -0.3652484557848425,
          "148": 0.3084641009866335,
          "149": 0.11172438883768873,
          "150": 0.2264083072061961,
          "151": 0.08193856346420517,
          "152": -0.04980569403189851,
          "153": 1.2935343232551713,
          "154": 0.1757349295941341,
          "155": 0.07187477025837334,
          "156": 0.4369985738369856,
          "157": -0.3350544017757416,
          "158": -0.36719659994973974,
          "159": -0.09245947170341418,
          "160": -0.24939482550504394,
          "161": 0.0030943223939785217,
          "162": 0.014726658686266124,
          "163": -0.7848791443811911,
          "164": -0.2093867480858458,
          "165": -0.03611335427506872,
          "166": 0.41163046081918264,
          "167": 0.2266512346758866,
          "168": -0.0295127141663345,
          "169": 0.15155634939995735,
          "170": -0.4494683285070963,
          "171": -0.4669782239699464,
          "172": -0.10601143043912097,
          "173": 0.0023508634231034944,
          "174": 0.5373059789318236,
          "175": 0.38433773913235103,
          "176": 0.005346428796077869,
          "177": 0.14055012858387042,
          "178": 0.031344292394214136,
          "179": -0.013691264316474772,
          "180": -0.18395730273783872,
          "181": 0.009552061944014544,
          "182": 0.5688869648050806,
          "183": -0.35343191229651005,
          "184": -0.258817013541911,
          "185": 0.2905078093046601,
          "186": 0.0036757490076671255,
          "187": 0.021617128093379578,
          "188": 0.29727744050782307,
          "189": 0.22536955895485564,
          "190": -0.14256329405805734,
          "191": 0.03012056601619925,
          "192": -0.37995209742416514,
          "193": 0.2196884661095764,
          "194": 0.36256937773262177,
          "195": -0.0932940749980138,
          "196": -0.801662264673627,
          "197": 0.3681325181672938,
          "198": 0.2554751050104913,
          "199": -0.01865079196008526,
          "200": 0.5088637239370082,
          "201": 0.33637703891031745,
          "202": -0.8830547781538693,
          "203": 0.18955646898385448,
          "204": -0.1624452965076694,
          "205": 0.6503187937538337,
          "206": -0.08255221682408273,
          "207": -0.2196067774815167,
          "208": -0.050904828876155585,
          "209": 0.11908294551434666,
          "210": -0.03474523193322408,
          "211": 0.012659202660433288,
          "212": -0.22053666538685635,
          "213": -0.6282302883431653,
          "214": -0.7864451334248004,
          "215": -0.5076686323216643,
          "216": -0.33184679446928655,
          "217": 0.05246371872181073,
          "218": 0.25208278071002005,
          "219": -0.21823644609593837,
          "220": 0.005195125961899199,
          "221": -0.5435997454568281,
          "222": 0.1325445198128155,
          "223": 0.01488369801392909,
          "224": 0.4995620716253596,
          "225": -0.004488791710470981,
          "226": -0.5097619861840988,
          "227": -0.06069786490210004,
          "228": -0.046969985895913065,
          "229": 0.7274815039184654,
          "230": 0.40551921762726456,
          "231": 0.3988913864575271,
          "232": -0.3805459045153246,
          "233": -0.5238535623134872,
          "234": -0.6087827505541701,
          "235": 0.09194677031810172,
          "236": 0.09151963642987518,
          "237": 0.6458625147768404,
          "238": 0.16650953920430628,
          "239": 0.020016177810980435,
          "240": 0.2136386026667322,
          "241": 0.29585172682460803,
          "242": 0.06954093657159689,
          "243": -0.5707137029305003,
          "244": -0.2269118826384131,
          "245": -0.053600216337839186,
          "246": 0.5780591386630293,
          "247": 0.17411228480195498,
          "248": 0.4312402185714683,
          "249": -0.07410899711171275,
          "250": -0.2764836667159846,
          "251": -0.3886200986279727,
          "252": 0.10354340902813501,
          "253": 0.10200211775434076,
          "254": 0.0584821556301872,
          "255": 0.20551234395091125,
          "256": 0.07798076722752345,
          "257": 0.13091083726163946,
          "258": -0.24503858797291192,
          "259": -0.02755956179994739,
          "260": -0.003377787552287405,
          "261": -0.707384217546522,
          "262": -0.05936795251633362,
          "263": -0.001698922178308845,
          "264": -0.32911584220526086,
          "265": 0.14662586849879874,
          "266": 0.17742028236802687,
          "267": -0.13598887203167312,
          "268": -0.06537953295277775,
          "269": 0.16450500272795482,
          "270": 0.17100257348977366,
          "271": -0.044437829671776494,
          "272": 0.4635745290747723,
          "273": 0.5798219112940078,
          "274": 0.013296715549668284,
          "275": -0.4430959846685771,
          "276": 0.9503091449538522,
          "277": 0.016209264493263154,
          "278": -0.6733372062540501,
          "279": 0.4099210547371584,
          "280": 0.7921975588954783,
          "281": 0.00007473856294346742,
          "282": 0.48397242644767613,
          "283": 0.3317655027241722,
          "284": -0.040733102573813317,
          "285": -0.037397849454411915,
          "286": 0.32998812958652757,
          "287": -0.2019797867094571,
          "288": 0.1943566878395853,
          "289": -0.15392580359085825,
          "290": -0.3101717254663051,
          "291": 0.3255369374425654,
          "292": -0.3105583121913722,
          "293": -0.5129936421934166,
          "294": -0.30732433906082035,
          "295": 0.6872217231438523,
          "296": -0.00012647407128266023,
          "297": 0.18949155835777678,
          "298": 0.16025026404341267,
          "299": 0.08935154991989544,
          "300": 0.23703456419015617,
          "301": 0.4898781678050936,
          "302": -0.233787791363614,
          "303": 0.17386084141036903,
          "304": -0.10652396651307594,
          "305": -0.12035608029686208,
          "306": -0.0680344374730582,
          "307": -0.08053122117410584,
          "308": 0.012173624307849228,
          "309": 0.027560530608878503,
          "310": -0.6656325610971444,
          "311": 0.30203028546778227,
          "312": -0.1246646951000743,
          "313": 0.009173374604971595,
          "314": 0.3340886881242268,
          "315": -0.6152653698993016,
          "316": -0.01942389745523201,
          "317": -0.14110112867097646,
          "318": -0.6384880725854429,
          "319": -0.04846260652906239,
          "320": -0.004685885121877718,
          "321": 0.29517268167075356,
          "322": 0.42360739659686136,
          "323": -0.010813046842891898,
          "324": 0.0001919771081676661,
          "325": -0.17318106288651472,
          "326": -0.02451873992335857,
          "327": -0.18993576407079543,
          "328": -0.14551525976698465,
          "329": -0.06165031544262264,
          "330": -0.1080580358824069,
          "331": -0.14088750661929766,
          "332": 0.9533033543455255,
          "333": 0.014562394508748975,
          "334": 0.01688943197786841,
          "335": 0.6177367722109562,
          "336": -0.0776035925601993,
          "337": -0.09980482913298869,
          "338": 0.039106953288379556,
          "339": -0.5419542189496054,
          "340": 0.2973051905272354,
          "341": 0.036092607414417985,
          "342": 0.36249584346328245,
          "343": 0.19055380245884496,
          "344": 0.12238726814294452,
          "345": -0.3317145449664153,
          "346": 0.43563017111389074,
          "347": -0.20974540071244757,
          "348": -0.6395274776229939,
          "349": 0.2265167422272846,
          "350": -0.17234440743792442,
          "351": 0.556333472952254,
          "352": 0.39912561796573565,
          "353": 0.19274425721746552,
          "354": -0.37757896064284124,
          "355": -0.2383337739575358,
          "356": 0.10661363818174005,
          "357": 0.04192852155341634,
          "358": 0.049552509108736736,
          "359": 0.04572328863520458,
          "360": 0.45223861801022497,
          "361": -0.18858460167287613,
          "362": -0.08321696521861088,
          "363": 0.039940113383417346,
          "364": 0.09280665875321271,
          "365": -0.38797672963917224,
          "366": -0.262648669779779,
          "367": -0.014281548548523482,
          "368": -0.2385401822759883,
          "369": -0.06477781596506865,
          "370": 0.0613126946399354,
          "371": 0.2582477815194474,
          "372": -0.035047650817323764,
          "373": 0.41125395806643605,
          "374": 0.40016573470897665,
          "375": -0.0337497178349908,
          "376": 0.13634665264477855,
          "377": 0.29060134935357346,
          "378": -0.7408639209823467,
          "379": 0.5149841980399051,
          "380": 0.2133926942382063,
          "381": 0.33299167738571156,
          "382": -0.006211164251738329,
          "383": -0.01650901387884614,
          "384": 0.5728337202756746,
          "385": -0.3437545269226739,
          "386": -0.19882549186905665,
          "387": 0.01344035295060768,
          "388": -0.47471718214418396,
          "389": 0.6162040626985006,
          "390": -0.11886261038624589,
          "391": -0.48671455358754084,
          "392": 0.28507198594405203,
          "393": -0.0693579743850286,
          "394": -0.08269869446288279,
          "395": -0.03807569325522264,
          "396": -0.09273501422925211,
          "397": 0.1729115127911951,
          "398": -0.011927322248557819,
          "399": 0.10846184413671789,
          "400": 0.34106721546251323,
          "401": 0.0655353716352939,
          "402": 0.14422927916990352,
          "403": 0.06859487979093011,
          "404": -0.03533791332238394,
          "405": -0.5672874075584089,
          "406": -0.0637301184392262,
          "407": 0.029392095267482068,
          "408": 0.024713517599743464,
          "409": -0.10838633535831925,
          "410": -0.4414439377425302,
          "411": -0.0040712600478066425,
          "412": -0.04350571336494795,
          "413": -0.09988485119227448,
          "414": 0.389993185799304,
          "415": 0.11105330356707031,
          "416": 0.523465683930256,
          "417": 0.2648891895370829,
          "418": 0.013777163291443103,
          "419": 0.4624498524440986,
          "420": 0.35579259144527275,
          "421": 0.013238656781848457,
          "422": -0.4968333815295118,
          "423": 0.6203032769622971,
          "424": -0.036042451357141125,
          "425": -0.7301463346656909,
          "426": 0.6047719188116534,
          "427": -0.2985655251438671,
          "428": 0.43517711850374885,
          "429": -0.08512881231416912,
          "430": -0.9164635826726724,
          "431": 0.041067033681399405,
          "432": 0.05710170177061173,
          "433": 0.18927871999366785,
          "434": 0.2966284058949611,
          "435": 0.07757363775800194,
          "436": 0.08231963482518428,
          "437": -0.675116704537362,
          "438": 0.30828168697097413,
          "439": -0.5506928647249687,
          "440": -0.5518928195130347
        }
      },
      "b2": {
        "rows": 9,
        "cols": 1,
        "w": {
          "0": 0.2026764530749308,
          "1": 0.5130532141904349,
          "2": -0.3815913588300285,
          "3": 0.6547527330427444,
          "4": -0.04673577881505538,
          "5": -0.35409936147424814,
          "6": -0.17904280743050455,
          "7": 0.6642005471517346,
          "8": -0.5468395807667383
        }
      }
    }
  }
}
